0.000386 -0.001946 -0.001022 -0.000405 0.002232 0.00045 -0.00181 0.000407 -0.0008 0.001956 -0.002869 -0.001129 0.000643 -0.001266 -0.001379 -0.000391 0.00059 0.001892 -0.000952 0.000789 -0.00071 0.000822 -0.001267 -0.002015 -0.001655 0.000122 -0.000745 0.00162 -0.000444 0.000344 0.001388 -0.001261 0.000326 -9.9e-05 0.001945 0.001589 -0.000158 -0.000126 -4.3e-05 -0.000762 -0.000224 -0.008923 -0.000339 -0.001594 0.001189 0.001041 -0.001839 -0.000311 0.000327 7.7e-05 7e-05 -0.000564 -0.001735 0.000615 0.001977 -0.001452 -0.000234 -0.000889 0.000841 -0.000638 0.000528 -0.005907 -0.000834 0.00042 0.001644 -0.000133 -0.00025 -0.000147 0.000108 -0.000459 0.001893 0.001763 -0.00062 -0.000709 -0.000178 0.000214 -0.001067 -0.000795 -0.001547 0.001238 -0.000607 -0.001341 -0.00102 -0.000323 0.000131 0.000354 -0.001129 -2.8e-05 -0.000836 -7.1e-05 -0.000227 5.7e-05 0.000872 0.000502 -0.000101 0.00071 -0.000147 2e-05 -0.000664 0.000316 0.000744 0.000115 0.001535 0.001401 0.000581 0.000182 -0.000233 0.000239 0.002382 -0.001084 -0.000111 -0.000313 0.000518 0.000318 -0.001052 -0.000527 -0.000673 -9.7e-05 0.0022 0.000398 -0.000556 -0.000872 -0.001287 0.000687 0.000456 5.8e-05 -0.000273 0.000638 -0.000341 -0.000467 0.00209 0.000862 0.000703 0.000403 0.00037 -0.000571 -0.000618 3.5e-05 0.0007 0.000497 0.000599 0.000971 -0.000388 0.000605 -0.001392 0.00067 -0.000667 -0.000944 -9.4e-05 -0.000888 0.001171 0.001859 -0.000165 -9.8e-05 5.3e-05 0.000492 -0.001293 -0.000536 0.00141 0.001153 0.002445 -0.000478 -0.000926 -0.00022 -0.001128 -0.000351 -0.000215 -0.000126 0.000304 0.000154 -0.002811 0.000403 -0.00047 0.000261 0.001916 -0.000407 -0.000547 -0.00019 0.001523 -0.000292 -0.000865 0.000907 -0.000749 -0.001123 -0.000284 -0.000867 0.000821 0.000561 2.8e-05 0.001204 -0.002656 -0.000329 0.001073 2.8e-05 0.000313 0.000451 0.001025 0.000551 0.00281 4.1e-05 -0.000801 -5e-06 8.6e-05 -3.6e-05 -0.00028 0.002112 -0.000276 0.001482 -0.000383 0.002286 0.000384 -0.000322 -0.000388 -0.001474 -5.5e-05 -0.001012 0.000822 9.6e-05 0.000513 -0.00091 0.000269 0.000413 -0.000869 -5e-06 -0.000479 -0.000109 -0.000575 -0.000389 0.000414 -0.000184 0.000608 -0.00224 -0.000313 0.002973 0.000672 0.000165 2.4e-05 -0.00036 -0.000316 0.000933 0.000319 0.001814 2.9e-05 -0.000703 -3.2e-05 0.000152 -0.001226 -0.000489 -4.2e-05 0.001825 9e-05 0.000754 -0.002356 0.000157 -2.7e-05 0.000388 -0.000763 0.000353 -1.1e-05 0.000545 0.00092 -0.000309 0.001931 -0.000624 -0.001091 0.000351 0.000344 0.000883 0.001255 -0.00141 0.002277 -0.00079 0.000104 0.001281 -0.000377 -0.000381 0.000355 0.002268 0.000584 0.001775 6.7e-05 0.000416 -0.00047 -0.002149 -0.000144 -0.000491 -0.000539 0.00016 0.001347 0.000502 0.002072 -0.001412 -0.000679 -0.000333 -0.000383 7.4e-05 0.000312 0.000138 -0.000459 0.000641 -8.4e-05 0.000871 3.1e-05 0.002765 -0.00324 -0.001588 -0.000464 -0.001541 -8.7e-05 0.000664 -0.000198 0.000496 -0.000665 -0.000129 0.000581 -0.000859 5.7e-05 0.001217 0.000289 -0.000493 0.000818 -0.000439 0.001027 -0.000679 0.000732 8.4e-05 -6e-06 0.001327 -0.00085 -0.000925 -5.2e-05 -0.000382 -0.000342 0.000262 0.000367 0.000579 -0.00052 2.9e-05 -0.000119 0.000267 0.00073 0.001891 0.000817 -0.000365 -0.000839 -0.000653 0.000696 0.004447 0.000351 -0.00054 0.001627 -0.000399 -0.000401 0.00016 -0.000527 -1.6e-05 2e-06 -0.000992 0.000597 -0.00126 7.8e-05 0.002595 -0.001424 -0.001343 0.000624 -0.000592 -0.000381 0.00035 0.001421 0.001392 -0.001141 0.00142 4.3e-05 -0.002332 -0.001192 -0.000153 -0.000332 0.000824 0.000949 -0.000261 6.4e-05 0.00063 -9.4e-05 0.000809 -0.000753 0.000155 -2.1e-05 0.000205 -0.000855 -0.000708 -4.1e-05 0.001109 0.002212 -0.000519 0.000324 0.000117 0.001066 -0.000211 -0.00079 6e-06 0
